digraph Tree {
node [shape=box] ;
0 [label="X[1] <= 1.445\nmse = 0.054\nsamples = 712\nvalue = 0.265"] ;
1 [label="X[0] <= -1.865\nmse = 0.041\nsamples = 654\nvalue = 0.29"] ;
0 -> 1 [labeldistance=2.5, labelangle=45, headlabel="True"] ;
2 [label="X[15] <= 0.019\nmse = 0.031\nsamples = 53\nvalue = 0.47"] ;
1 -> 2 ;
3 [label="mse = 0.009\nsamples = 34\nvalue = 0.541"] ;
2 -> 3 ;
4 [label="mse = 0.045\nsamples = 19\nvalue = 0.343"] ;
2 -> 4 ;
5 [label="X[9] <= 0.586\nmse = 0.039\nsamples = 601\nvalue = 0.275"] ;
1 -> 5 ;
6 [label="X[60] <= 0.229\nmse = 0.036\nsamples = 491\nvalue = 0.247"] ;
5 -> 6 ;
7 [label="X[29] <= 0.057\nmse = 0.032\nsamples = 468\nvalue = 0.257"] ;
6 -> 7 ;
8 [label="X[1] <= 0.552\nmse = 0.034\nsamples = 259\nvalue = 0.294"] ;
7 -> 8 ;
9 [label="X[5] <= 0.281\nmse = 0.028\nsamples = 208\nvalue = 0.317"] ;
8 -> 9 ;
10 [label="X[28] <= 0.003\nmse = 0.025\nsamples = 164\nvalue = 0.294"] ;
9 -> 10 ;
11 [label="X[127] <= 0.007\nmse = 0.019\nsamples = 95\nvalue = 0.251"] ;
10 -> 11 ;
12 [label="X[46] <= -0.08\nmse = 0.015\nsamples = 73\nvalue = 0.281"] ;
11 -> 12 ;
13 [label="mse = 0.012\nsamples = 28\nvalue = 0.223"] ;
12 -> 13 ;
14 [label="X[20] <= 0.032\nmse = 0.013\nsamples = 45\nvalue = 0.317"] ;
12 -> 14 ;
15 [label="mse = 0.009\nsamples = 21\nvalue = 0.26"] ;
14 -> 15 ;
16 [label="mse = 0.011\nsamples = 24\nvalue = 0.367"] ;
14 -> 16 ;
17 [label="mse = 0.02\nsamples = 22\nvalue = 0.151"] ;
11 -> 17 ;
18 [label="X[30] <= -0.007\nmse = 0.027\nsamples = 69\nvalue = 0.353"] ;
10 -> 18 ;
19 [label="mse = 0.029\nsamples = 31\nvalue = 0.278"] ;
18 -> 19 ;
20 [label="mse = 0.017\nsamples = 38\nvalue = 0.413"] ;
18 -> 20 ;
21 [label="X[110] <= 0.008\nmse = 0.028\nsamples = 44\nvalue = 0.403"] ;
9 -> 21 ;
22 [label="mse = 0.027\nsamples = 21\nvalue = 0.475"] ;
21 -> 22 ;
23 [label="mse = 0.019\nsamples = 23\nvalue = 0.338"] ;
21 -> 23 ;
24 [label="X[7] <= 0.245\nmse = 0.048\nsamples = 51\nvalue = 0.199"] ;
8 -> 24 ;
25 [label="mse = 0.02\nsamples = 31\nvalue = 0.289"] ;
24 -> 25 ;
26 [label="mse = 0.057\nsamples = 20\nvalue = 0.058"] ;
24 -> 26 ;
27 [label="X[35] <= 0.043\nmse = 0.026\nsamples = 209\nvalue = 0.212"] ;
7 -> 27 ;
28 [label="X[149] <= -0.004\nmse = 0.023\nsamples = 125\nvalue = 0.246"] ;
27 -> 28 ;
29 [label="mse = 0.021\nsamples = 21\nvalue = 0.123"] ;
28 -> 29 ;
30 [label="X[98] <= -0.025\nmse = 0.02\nsamples = 104\nvalue = 0.271"] ;
28 -> 30 ;
31 [label="mse = 0.023\nsamples = 29\nvalue = 0.193"] ;
30 -> 31 ;
32 [label="X[74] <= 0.051\nmse = 0.015\nsamples = 75\nvalue = 0.301"] ;
30 -> 32 ;
33 [label="X[14] <= 0.276\nmse = 0.012\nsamples = 50\nvalue = 0.271"] ;
32 -> 33 ;
34 [label="mse = 0.011\nsamples = 31\nvalue = 0.231"] ;
33 -> 34 ;
35 [label="mse = 0.007\nsamples = 19\nvalue = 0.337"] ;
33 -> 35 ;
36 [label="mse = 0.016\nsamples = 25\nvalue = 0.36"] ;
32 -> 36 ;
37 [label="X[136] <= 0.003\nmse = 0.026\nsamples = 84\nvalue = 0.161"] ;
27 -> 37 ;
38 [label="X[59] <= -0.061\nmse = 0.02\nsamples = 47\nvalue = 0.106"] ;
37 -> 38 ;
39 [label="mse = 0.017\nsamples = 20\nvalue = 0.021"] ;
38 -> 39 ;
40 [label="mse = 0.012\nsamples = 27\nvalue = 0.169"] ;
38 -> 40 ;
41 [label="mse = 0.026\nsamples = 37\nvalue = 0.23"] ;
37 -> 41 ;
42 [label="mse = 0.068\nsamples = 23\nvalue = 0.044"] ;
6 -> 42 ;
43 [label="X[45] <= 0.174\nmse = 0.036\nsamples = 110\nvalue = 0.398"] ;
5 -> 43 ;
44 [label="X[12] <= -0.112\nmse = 0.028\nsamples = 91\nvalue = 0.437"] ;
43 -> 44 ;
45 [label="mse = 0.032\nsamples = 26\nvalue = 0.543"] ;
44 -> 45 ;
46 [label="X[11] <= -0.005\nmse = 0.021\nsamples = 65\nvalue = 0.395"] ;
44 -> 46 ;
47 [label="mse = 0.013\nsamples = 30\nvalue = 0.459"] ;
46 -> 47 ;
48 [label="mse = 0.02\nsamples = 35\nvalue = 0.34"] ;
46 -> 48 ;
49 [label="mse = 0.027\nsamples = 19\nvalue = 0.211"] ;
43 -> 49 ;
50 [label="X[12] <= -0.144\nmse = 0.111\nsamples = 58\nvalue = -0.023"] ;
0 -> 50 [labeldistance=2.5, labelangle=-45, headlabel="False"] ;
51 [label="mse = 0.108\nsamples = 25\nvalue = -0.224"] ;
50 -> 51 ;
52 [label="mse = 0.06\nsamples = 33\nvalue = 0.129"] ;
50 -> 52 ;
}